/*!
 * The following copyright notice may not be removed under any circumstances.
 * 
 * Copyright:
 * Digitized data copyright (C) 1993-1997 The Monotype Corporation. All rights
 * reserved.
 * 
 * Trademark:
 * Andale is a trademark of The Monotype Corporation which may be registered in
 * certain jurisdictions.
 * 
 * Description:
 * Andale Monospaced is a highly legible monospaced font.
 * 
 * Manufacturer:
 * Monotype Typography
 * 
 * Designer:
 * Steven R. Matteson
 * 
 * Vendor URL:
 * http://www.monotype.com
 * 
 * License information:
 * http://www.monotype.com/html/type/license.html
 */
Cufon.registerFont({"w":1229,"face":{"font-family":"Andale Mono","font-weight":400,"font-stretch":"normal","units-per-em":"2048","panose-1":"2 11 5 9 0 0 0 0 0 4","ascent":"1638","descent":"-410","x-height":"25","bbox":"0 -1536 1229 446","underline-thickness":"102","underline-position":"-154","unicode-range":"U+0020-U+007E"},"glyphs":{" ":{},"!":{"d":"688,-952r-47,528r-86,0r-47,-528r0,-459r180,0r0,459xm602,-229v35,0,65,12,89,36v24,24,36,54,36,89v0,35,-13,66,-37,92v-24,26,-53,39,-88,39v-34,0,-63,-13,-87,-39v-24,-26,-36,-56,-36,-92v0,-36,11,-66,35,-90v24,-24,53,-35,88,-35"},"\"":{"d":"872,-1171r-36,280r-80,0r-37,-280r0,-240r153,0r0,240xm510,-1171r-37,280r-80,0r-37,-280r0,-240r154,0r0,240"},"#":{"d":"1147,-397r-318,0r-84,397r-141,0r84,-397r-268,0r-84,397r-141,0r84,-397r-191,0r0,-131r219,0r76,-359r-295,0r0,-131r322,0r84,-393r141,0r-84,393r268,0r84,-393r141,0r-83,393r186,0r0,131r-213,0r-76,359r289,0r0,131xm793,-887r-269,0r-75,359r268,0"},"$":{"d":"682,-809v126,54,214,113,264,179v50,66,76,141,76,224v0,105,-30,194,-90,268v-60,74,-144,124,-250,150r0,129r-117,0r0,-114r-8,0v-121,0,-228,-24,-319,-72r34,-141v107,49,201,73,281,73r12,0r0,-583v-143,-61,-236,-122,-277,-182v-41,-60,-61,-122,-61,-189v0,-95,30,-174,89,-238v59,-64,142,-106,249,-125r0,-106r117,0r0,98v91,0,181,14,270,43r-37,140v-81,-29,-159,-43,-233,-43r0,489xm565,-864r0,-420v-119,31,-178,102,-178,211v0,81,59,150,178,209xm682,-131v120,-43,180,-128,180,-254v0,-56,-14,-104,-42,-143v-28,-39,-75,-76,-138,-111r0,508"},"%":{"d":"330,-1438v89,0,158,31,208,93v50,62,74,142,74,241v0,99,-25,179,-75,241v-50,62,-119,93,-207,93v-87,0,-156,-32,-207,-94v-51,-62,-76,-142,-76,-240v0,-96,26,-176,77,-239v51,-63,119,-95,206,-95xm330,-891v93,0,139,-71,139,-213v0,-142,-46,-213,-139,-213v-93,0,-140,71,-140,213v0,142,47,213,140,213xm1053,-1411r-746,1411r-139,0r745,-1411r140,0xm897,-641v89,0,158,31,208,93v50,62,75,142,75,241v0,98,-26,179,-76,241v-50,62,-119,93,-207,93v-87,0,-156,-31,-207,-94v-51,-63,-76,-143,-76,-240v0,-97,25,-176,76,-239v51,-63,120,-95,207,-95xm897,-94v93,0,139,-71,139,-213v0,-142,-46,-213,-139,-213v-93,0,-139,71,-139,213v0,142,46,213,139,213"},"&":{"d":"1227,-8v-29,12,-66,18,-109,18v-35,0,-70,-13,-105,-38v-35,-25,-79,-73,-134,-146v-104,134,-230,201,-377,201v-118,0,-218,-38,-300,-113v-82,-75,-122,-168,-122,-279v0,-71,21,-139,64,-203v43,-64,122,-135,239,-216v-111,-130,-166,-243,-166,-340v0,-93,31,-169,93,-227v62,-58,139,-87,233,-87v87,0,159,24,216,74v57,50,85,119,85,207v0,63,-19,124,-58,182v-39,58,-111,126,-217,203r295,364v45,-116,80,-197,102,-242v22,-45,53,-85,94,-118v41,-33,93,-49,157,-49r8,0r0,137r-8,0v-41,0,-80,22,-117,65v-37,43,-87,149,-148,318v50,60,89,103,117,129v28,26,59,39,94,39v16,0,37,-2,64,-6r0,127xm496,-866v79,-55,133,-103,164,-145v31,-42,47,-87,47,-134v0,-52,-15,-91,-47,-118v-32,-27,-70,-40,-115,-40v-52,0,-96,15,-131,47v-35,32,-52,76,-52,132v0,72,45,158,134,258xm795,-276r-336,-414v-79,57,-135,110,-167,158v-32,48,-48,102,-48,161v0,73,26,135,78,185v52,50,113,75,184,75v111,0,208,-55,289,-165"},"'":{"d":"692,-1171r-37,280r-80,0r-36,-280r0,-240r153,0r0,240"},"(":{"d":"958,209r-61,86v-149,-113,-262,-244,-340,-393v-78,-149,-117,-307,-117,-473v0,-167,39,-325,116,-473v77,-148,191,-279,341,-392r61,86v-122,109,-210,224,-264,344v-54,120,-80,264,-80,433v0,175,28,323,84,443v56,120,142,232,260,339"},")":{"d":"332,-1436v149,113,263,244,340,392v77,148,116,306,116,473v0,166,-38,324,-116,473v-78,149,-191,280,-340,393r-62,-86v122,-108,210,-223,264,-345v54,-122,80,-267,80,-437v0,-175,-28,-322,-83,-440v-55,-118,-142,-230,-261,-337"},"*":{"d":"967,-858r-60,100r-237,-157r0,286r-111,0r0,-286r-240,159r-59,-102r252,-164r-252,-164r59,-100r240,160r0,-285r111,0r0,283r237,-158r60,100r-248,164"},"+":{"d":"1087,-657r-405,0r0,409r-131,0r0,-409r-410,0r0,-131r410,0r0,-410r131,0r0,410r405,0r0,131"},",":{"d":"616,27v-35,-4,-63,-18,-86,-43v-23,-25,-34,-53,-34,-84v0,-34,11,-63,33,-86v22,-23,50,-35,83,-35v37,0,70,15,97,45v27,30,41,67,41,110v0,131,-73,233,-218,306r-38,-72v81,-40,122,-87,122,-141"},"-":{"d":"901,-487r-594,0r0,-152r594,0r0,152"},".":{"d":"608,-229v35,0,65,12,89,36v24,24,36,54,36,89v0,36,-13,66,-37,92v-24,26,-53,39,-88,39v-34,0,-63,-13,-87,-39v-24,-26,-36,-56,-36,-92v0,-36,11,-66,35,-90v24,-24,53,-35,88,-35"},"\/":{"d":"975,-1438r-613,1465r-147,0r610,-1465r150,0"},"0":{"d":"861,-1040r-533,462r-3,9r19,163r552,-485r-26,-157xm612,-1438v149,0,264,64,344,192v80,128,121,309,121,541v0,225,-39,403,-117,535v-78,132,-194,197,-348,197v-149,0,-263,-64,-344,-192v-81,-128,-121,-308,-121,-540v0,-225,39,-403,117,-535v78,-132,195,-198,348,-198xm612,-117v99,0,172,-47,220,-141v48,-94,71,-242,71,-447v0,-205,-23,-354,-71,-447v-48,-93,-121,-140,-220,-140v-97,0,-170,48,-218,143v-48,95,-72,243,-72,444v0,203,24,353,72,447v48,94,120,141,218,141"},"1":{"d":"1018,0r-742,0r0,-143r299,0r0,-1096r-282,141r0,-164r305,-157r141,0r0,1276r279,0r0,143"},"2":{"d":"981,0r-776,0r0,-119v197,-219,324,-366,383,-441v59,-75,106,-153,143,-235v37,-82,55,-164,55,-245v0,-79,-24,-141,-72,-186v-48,-45,-114,-68,-200,-68v-66,0,-155,20,-266,61r-23,-141v101,-43,206,-64,316,-64v126,0,228,35,305,106v77,71,115,166,115,285v0,85,-19,169,-59,252v-40,83,-91,163,-153,240v-62,77,-183,214,-362,412r594,0r0,143"},"3":{"d":"702,-758v86,24,155,68,207,132v52,64,78,135,78,214v0,124,-48,228,-145,312v-97,84,-211,127,-342,127v-112,0,-212,-25,-301,-74r32,-135v93,43,184,65,275,65v85,0,158,-26,218,-79v60,-53,91,-122,91,-205v0,-82,-32,-149,-97,-200v-65,-51,-150,-77,-257,-77r-43,0r0,-135r12,0v103,0,187,-25,254,-73v67,-48,100,-113,100,-195v0,-67,-24,-119,-72,-157v-48,-38,-114,-56,-198,-56v-73,0,-154,20,-244,59r-22,-141v91,-41,182,-62,274,-62v126,0,230,34,312,100v82,66,122,151,122,255v0,72,-24,139,-74,201v-50,62,-110,102,-180,118r0,6"},"4":{"d":"1073,-326r-174,0r0,326r-164,0r0,-326r-614,0r0,-125r557,-960r221,0r0,942r174,0r0,143xm735,-469r0,-780r-448,780r448,0"},"5":{"d":"434,-842v45,-12,90,-18,133,-18v133,0,239,40,316,122v77,82,116,184,116,306v0,128,-45,237,-135,326v-90,89,-200,133,-329,133v-123,0,-227,-21,-310,-62r33,-139v91,38,184,57,281,57v86,0,156,-28,209,-83v53,-55,79,-133,79,-232v0,-94,-25,-166,-75,-217v-50,-51,-114,-76,-193,-76v-57,0,-114,11,-170,33r-98,-45r0,-674r645,0r0,143r-502,0r0,426"},"6":{"d":"362,-735v88,-71,184,-107,287,-107v119,0,219,38,299,114v80,76,119,175,119,296v0,133,-35,242,-106,329v-71,87,-165,130,-283,130v-151,0,-270,-69,-358,-207v-88,-138,-132,-308,-132,-508v0,-213,46,-392,138,-535v92,-143,217,-215,376,-215v110,0,205,16,285,49r-26,146v-93,-34,-177,-51,-254,-51v-109,0,-193,52,-254,156v-61,104,-91,238,-91,403xm367,-594v0,121,28,230,85,329v57,99,128,148,214,148v73,0,129,-27,168,-80v39,-53,59,-127,59,-221v0,-87,-22,-155,-65,-205v-43,-50,-104,-75,-183,-75v-102,0,-195,35,-278,104"},"7":{"d":"1036,-1294r-559,1294r-168,0r551,-1268r-661,0r0,-143r837,0r0,117"},"8":{"d":"756,-774v96,28,171,76,224,143v53,67,79,146,79,236v0,129,-43,232,-129,308v-86,76,-191,114,-316,114v-131,0,-240,-38,-324,-115v-84,-77,-126,-178,-126,-305v0,-89,27,-168,82,-236v55,-68,131,-116,229,-145v-78,-20,-140,-59,-187,-116v-47,-57,-71,-120,-71,-191v0,-91,36,-173,108,-247v72,-74,167,-110,285,-110v117,0,214,37,290,110v76,73,114,156,114,247v0,69,-24,131,-72,189v-48,58,-110,97,-186,118xm610,-842v3,0,19,-4,48,-12v29,-8,54,-18,74,-30v20,-12,39,-26,56,-44v17,-18,31,-40,42,-64v11,-24,16,-51,16,-81v0,-64,-23,-117,-69,-159v-46,-42,-102,-64,-167,-64v-63,0,-118,22,-163,65v-45,43,-68,96,-68,158v0,39,9,74,25,103v16,29,36,53,60,71v24,18,52,32,84,42v32,10,53,15,62,15xm610,-702v-183,53,-274,154,-274,301v0,86,28,155,83,207v55,52,120,77,195,77v77,0,143,-26,196,-77v53,-51,79,-120,79,-207v0,-66,-18,-125,-55,-177v-37,-52,-111,-94,-224,-124"},"9":{"d":"883,-678v-81,71,-177,107,-287,107v-119,0,-218,-39,-298,-115v-80,-76,-120,-174,-120,-295v0,-129,38,-239,114,-327v76,-88,175,-132,296,-132v147,0,262,67,345,202v83,135,124,306,124,513v0,207,-48,385,-145,531v-97,146,-227,219,-390,219v-109,0,-204,-17,-284,-50r26,-145v92,34,177,51,254,51v111,0,200,-54,266,-161v66,-107,99,-240,99,-398xm879,-819v0,-127,-26,-237,-77,-333v-51,-96,-119,-144,-202,-144v-75,0,-135,28,-180,84v-45,56,-68,128,-68,217v0,82,22,149,68,201v46,52,106,79,180,79v102,0,191,-31,266,-94"},":":{"d":"606,-1057v34,0,63,12,86,35v23,23,35,51,35,84v0,33,-12,61,-35,84v-23,23,-52,35,-86,35v-33,0,-61,-12,-84,-35v-23,-23,-35,-51,-35,-84v0,-33,12,-61,35,-84v23,-23,51,-35,84,-35xm606,-221v34,0,63,11,86,34v23,23,35,51,35,85v0,33,-12,61,-35,84v-23,23,-52,34,-86,34v-33,0,-61,-11,-84,-34v-23,-23,-35,-51,-35,-84v0,-34,12,-62,35,-85v23,-23,51,-34,84,-34"},";":{"d":"614,-1057v34,0,63,12,86,35v23,23,35,51,35,84v0,34,-12,62,-35,85v-23,23,-52,34,-86,34v-33,0,-61,-12,-84,-35v-23,-23,-34,-51,-34,-84v0,-33,11,-61,34,-84v23,-23,51,-35,84,-35xm616,27v-35,-4,-63,-18,-86,-43v-23,-25,-34,-53,-34,-84v0,-34,11,-63,33,-86v22,-23,50,-35,83,-35v37,0,70,15,97,45v27,30,41,67,41,110v0,131,-73,233,-218,306r-38,-72v81,-40,122,-87,122,-141"},"<":{"d":"975,-215r-748,-449r0,-120r748,-445r0,144r-600,366r600,357r0,147"},"=":{"d":"1087,-858r-946,0r0,-131r946,0r0,131xm1087,-457r-946,0r0,-131r946,0r0,131"},">":{"d":"1014,-664r-748,449r0,-147r600,-357r-600,-366r0,-144r748,445r0,120"},"?":{"d":"240,-1358v118,-53,224,-80,317,-80v126,0,223,28,292,85v69,57,103,140,103,251v0,115,-74,234,-223,357v-65,53,-105,89,-119,107v-14,18,-25,39,-34,64v-9,25,-13,57,-13,95r0,55r-137,0r0,-57v0,-116,37,-206,111,-271r132,-116v43,-36,74,-73,94,-110v20,-37,30,-76,30,-118v0,-69,-22,-123,-66,-160v-44,-37,-104,-55,-180,-55v-69,0,-155,25,-260,74xm512,-229v35,0,65,12,89,36v24,24,36,54,36,89v0,36,-13,66,-37,92v-24,26,-53,39,-88,39v-34,0,-63,-13,-87,-39v-24,-26,-36,-56,-36,-92v0,-36,11,-66,35,-90v24,-24,53,-35,88,-35"},"@":{"d":"969,78v-101,56,-209,84,-326,84v-161,0,-292,-66,-393,-198v-101,-132,-152,-308,-152,-531v0,-267,50,-478,150,-632v100,-154,230,-231,391,-231v149,0,271,60,365,182v94,122,141,286,141,492v0,154,-31,281,-93,382v-62,101,-141,151,-239,151v-67,0,-110,-40,-129,-119v-38,79,-92,119,-162,119v-51,0,-93,-27,-127,-80v-34,-53,-51,-123,-51,-209v0,-135,28,-248,86,-338v58,-90,130,-135,215,-135v33,0,68,12,103,37r4,-25r125,0v-40,359,-60,552,-60,578v0,18,3,33,11,45v8,12,18,18,30,18v45,0,85,-40,122,-120v37,-80,56,-181,56,-304v0,-176,-36,-316,-108,-418v-72,-102,-168,-153,-289,-153v-129,0,-234,68,-313,203v-79,135,-119,321,-119,557v0,189,41,341,121,454v80,113,185,170,315,170v107,0,208,-23,303,-69xm733,-840v-20,-25,-47,-37,-82,-37v-55,0,-98,32,-131,96v-33,64,-49,149,-49,255v0,61,8,108,25,142v17,34,38,52,63,52v38,0,69,-18,94,-55v25,-37,38,-63,39,-78"},"A":{"d":"1176,0r-172,0r-156,-494r-463,0r-158,494r-170,0r461,-1411r197,0xm801,-637r-185,-584r-184,584r369,0"},"B":{"d":"784,-774v94,22,168,65,221,128v53,63,80,139,80,226v0,128,-46,230,-139,306v-93,76,-205,114,-336,114r-401,0r0,-1411r391,0v136,0,242,29,319,89v77,60,115,144,115,253v0,67,-22,126,-66,178v-44,52,-106,90,-184,113r0,4xm373,-850r192,0v201,0,301,-72,301,-215v0,-65,-25,-116,-74,-151v-49,-35,-122,-52,-217,-52r-202,0r0,418xm373,-143r186,0v109,0,195,-25,259,-74v64,-49,95,-117,95,-203v0,-91,-31,-162,-94,-212v-63,-50,-153,-75,-272,-75r-174,0r0,564"},"C":{"d":"1071,-88v-111,77,-239,115,-385,115v-183,0,-321,-63,-416,-188v-95,-125,-143,-307,-143,-544v0,-229,46,-409,138,-539v92,-130,232,-194,421,-194v68,0,135,9,202,26v67,17,120,40,161,69r-54,129v-94,-53,-197,-80,-309,-80v-130,0,-227,48,-290,142v-63,94,-95,243,-95,447v0,392,128,588,385,588v109,0,220,-33,334,-100"},"D":{"d":"209,-1411r278,0v185,0,333,63,444,189v111,126,167,298,167,517v0,224,-57,398,-170,521v-113,123,-257,184,-434,184r-285,0r0,-1411xm373,-143r116,0v134,0,240,-50,318,-149v78,-99,117,-237,117,-413v0,-175,-40,-313,-118,-413v-78,-100,-184,-150,-317,-150r-116,0r0,1125"},"E":{"d":"993,0r-737,0r0,-1411r731,0r0,143r-567,0r0,437r545,0r0,143r-545,0r0,545r573,0r0,143"},"F":{"d":"1004,-1268r-584,0r0,461r532,0r0,143r-532,0r0,664r-164,0r0,-1411r748,0r0,143"},"G":{"d":"1069,-100v-115,85,-243,127,-383,127v-183,0,-322,-63,-417,-187v-95,-124,-142,-306,-142,-545v0,-231,45,-411,137,-540v92,-129,233,-193,422,-193v68,0,135,9,202,26v67,17,120,40,161,69r-54,129v-94,-53,-197,-80,-309,-80v-129,0,-226,47,-290,142v-64,95,-95,244,-95,447v0,392,128,588,385,588v97,0,170,-20,219,-61r0,-348r-254,0r0,-142r418,0r0,568"},"H":{"d":"1020,0r-164,0r0,-700r-483,0r0,700r-164,0r0,-1411r164,0r0,567r483,0r0,-567r164,0r0,1411"},"I":{"d":"928,0r-641,0r0,-143r243,0r0,-1125r-243,0r0,-143r641,0r0,143r-234,0r0,1125r234,0r0,143"},"J":{"d":"866,-375v0,129,-34,229,-102,298v-68,69,-166,104,-297,104v-114,0,-218,-24,-311,-72r49,-131v79,39,167,59,262,59v83,0,142,-21,179,-65v37,-44,56,-112,56,-205r0,-1024r164,0r0,1036"},"K":{"d":"1206,0r-207,0r-477,-692r-149,162r0,530r-164,0r0,-1411r164,0r0,676r626,-676r189,0r-551,596"},"L":{"d":"1024,0r-768,0r0,-1411r164,0r0,1268r604,0r0,143"},"M":{"d":"1069,0r-158,0r0,-1210r-213,579r-155,0r-213,-579r0,1210r-158,0r0,-1411r213,0r236,643r235,-643r213,0r0,1411"},"N":{"d":"1040,0r-182,0r-506,-1114r0,1114r-164,0r0,-1411r183,0r508,1104r0,-1104r161,0r0,1411"},"O":{"d":"612,-1438v158,0,279,63,362,188v83,125,124,306,124,545v0,237,-41,419,-124,544v-83,125,-203,188,-362,188v-157,0,-277,-62,-360,-187v-83,-125,-125,-307,-125,-545v0,-238,41,-420,124,-545v83,-125,203,-188,361,-188xm612,-117v208,0,312,-196,312,-588v0,-393,-104,-589,-312,-589v-101,0,-179,50,-232,152v-53,102,-79,248,-79,437v0,191,26,337,79,437v53,100,130,151,232,151"},"P":{"d":"256,-1411r358,0v135,0,244,34,325,102v81,68,122,162,122,281v0,120,-40,216,-121,288v-81,72,-188,107,-319,107r-201,0r0,633r-164,0r0,-1411xm420,-776r178,0v193,0,289,-81,289,-242v0,-75,-27,-135,-79,-181v-52,-46,-119,-69,-202,-69r-186,0r0,492"},"Q":{"d":"1135,233v-58,18,-115,27,-172,27v-147,0,-242,-80,-285,-240v-26,5,-48,7,-66,7v-157,0,-277,-62,-360,-187v-83,-125,-125,-307,-125,-545v0,-238,41,-420,124,-545v83,-125,203,-188,361,-188v158,0,279,63,362,188v83,125,124,306,124,545v0,347,-87,572,-260,676v25,97,72,146,141,146v39,0,81,-5,127,-15xm612,-117v208,0,312,-196,312,-588v0,-393,-104,-589,-312,-589v-101,0,-179,50,-232,152v-53,102,-79,248,-79,437v0,191,26,337,79,437v53,100,130,151,232,151"},"R":{"d":"1174,0r-205,0r-414,-641r-182,0r0,641r-164,0r0,-1411r399,0v134,0,240,32,318,97v78,65,116,156,116,272v0,86,-28,163,-85,230v-57,67,-135,112,-234,136xm373,-784r207,0v87,0,157,-23,211,-70v54,-47,81,-107,81,-178v0,-157,-96,-236,-288,-236r-211,0r0,484"},"S":{"d":"915,-1255v-84,-29,-164,-43,-239,-43v-85,0,-154,19,-208,58v-54,39,-81,95,-81,167v0,85,70,160,211,225v104,48,172,81,206,100v34,19,68,44,103,77v35,33,62,71,83,115v21,44,32,95,32,150v0,137,-46,244,-138,320v-92,76,-202,113,-327,113v-121,0,-228,-24,-319,-72r34,-141v107,49,201,73,281,73v93,0,169,-25,225,-73v56,-48,84,-114,84,-199v0,-63,-18,-115,-55,-159v-37,-44,-104,-89,-203,-134v-101,-47,-166,-79,-196,-96v-30,-17,-60,-40,-89,-70v-29,-30,-52,-64,-68,-101v-16,-37,-24,-78,-24,-122v0,-117,42,-208,126,-273v84,-65,190,-98,319,-98v94,0,187,14,280,43"},"T":{"d":"1133,-1278r-435,0r0,1278r-163,0r0,-1278r-437,0r0,-133r1035,0r0,133"},"U":{"d":"1020,-444v0,163,-34,283,-100,358v-66,75,-167,113,-302,113v-273,0,-409,-156,-409,-467r0,-971r164,0r0,956v0,225,82,338,245,338v82,0,142,-27,180,-80v38,-53,58,-140,58,-260r0,-954r164,0r0,967"},"V":{"d":"1171,-1411r-460,1411r-197,0r-461,-1411r172,0r387,1221r389,-1221r170,0"},"W":{"d":"1186,-1411r-180,1411r-152,0r-240,-795r-239,795r-156,0r-176,-1411r162,0r119,1147r208,-694r164,0r209,696r121,-1149r160,0"},"X":{"d":"1163,0r-182,0r-358,-578r-355,578r-182,0r451,-719r-449,-692r188,0r347,559r350,-559r180,0r-442,692"},"Y":{"d":"1139,-1411r-441,807r0,604r-163,0r0,-604r-441,-807r185,0r337,635r338,-635r185,0"},"Z":{"d":"1040,-1294r-671,1151r659,0r0,143r-846,0r0,-115r668,-1153r-639,0r0,-143r829,0r0,117"},"[":{"d":"911,270r-389,0r0,-1681r389,0r0,137r-233,0r0,1409r233,0r0,135"},"\\":{"d":"973,27r-148,0r-612,-1465r149,0"},"]":{"d":"678,266r-399,0r0,-135r243,0r0,-1407r-243,0r0,-135r399,0r0,1677"},"^":{"d":"1124,-788r-143,0r-367,-601r-356,601r-147,0r448,-748r121,0"},"_":{"d":"1229,446r-1229,0r0,-131r1229,0r0,131"},"`":{"d":"772,-1165r-113,0r-311,-301r225,0"},"a":{"d":"1044,0r-155,0v-13,-42,-19,-98,-19,-168v-89,130,-209,195,-362,195v-77,0,-145,-28,-204,-83v-59,-55,-89,-125,-89,-212v0,-51,10,-97,31,-136v21,-39,51,-73,91,-100v40,-27,89,-48,146,-64v57,-16,125,-26,204,-32r175,-14r0,-50v0,-179,-83,-268,-250,-268v-39,0,-90,9,-150,26v-60,17,-112,37,-155,60r-41,-112v142,-73,274,-109,396,-109v237,0,356,126,356,377r0,448v0,91,9,171,26,242xm862,-309r0,-189v-141,13,-238,25,-290,36v-52,11,-98,31,-136,61v-38,30,-57,71,-57,122v0,47,16,84,49,113v33,29,74,43,125,43v55,0,110,-16,165,-49v55,-33,103,-79,144,-137"},"b":{"d":"371,-907v35,-48,82,-87,141,-116v59,-29,121,-44,186,-44v121,0,216,49,284,146v68,97,101,225,101,384v0,161,-36,295,-108,403v-72,108,-168,161,-289,161v-65,0,-126,-17,-182,-49v-56,-32,-100,-75,-133,-128r0,150r-156,0r0,-1411r156,0r0,504xm371,-752r0,433v29,59,69,108,119,147v50,39,102,59,155,59v84,0,151,-40,201,-120v50,-80,74,-178,74,-295v0,-120,-24,-217,-71,-292v-47,-75,-113,-112,-198,-112v-110,0,-203,60,-280,180"},"c":{"d":"1014,-35v-91,41,-190,62,-299,62v-164,0,-295,-49,-393,-149v-98,-100,-146,-233,-146,-398v0,-165,50,-298,148,-398v98,-100,227,-149,387,-149v105,0,204,18,299,55r-41,129v-95,-33,-180,-49,-256,-49v-115,0,-206,37,-273,111v-67,74,-100,174,-100,301v0,116,35,213,104,292v69,79,160,119,271,119v88,0,179,-17,272,-51"},"d":{"d":"1014,0r-156,0r0,-150v-32,51,-78,94,-138,127v-60,33,-122,50,-188,50v-119,0,-214,-53,-283,-159v-69,-106,-104,-242,-104,-405v0,-153,37,-279,109,-379v72,-100,168,-151,287,-151v131,0,237,53,317,160r0,-504r156,0r0,1411xm858,-319r0,-433v-75,-120,-165,-180,-270,-180v-86,0,-154,38,-204,114v-50,76,-75,173,-75,290v0,120,24,220,71,298v47,78,111,117,193,117v39,0,79,-11,119,-32v40,-21,78,-53,113,-96v35,-43,53,-69,53,-78"},"e":{"d":"1049,-516r-715,0v0,118,34,215,102,292v68,77,153,115,252,115v95,0,192,-17,293,-51r27,125v-92,41,-199,62,-322,62v-155,0,-279,-50,-374,-149v-95,-99,-142,-233,-142,-402v0,-165,43,-298,128,-396v85,-98,194,-147,329,-147v120,0,220,46,301,137v81,91,121,213,121,365r0,49xm879,-643v0,-81,-25,-149,-76,-205v-51,-56,-107,-84,-170,-84v-81,0,-148,27,-201,80v-53,53,-82,123,-88,209r535,0"},"f":{"d":"1028,-1395r-41,127v-74,-21,-140,-32,-199,-32v-56,0,-95,16,-116,48v-21,32,-31,95,-31,191r0,19r350,0r0,135r-350,0r0,907r-156,0r0,-907r-262,0r0,-135r262,0r0,-35v0,-133,23,-226,68,-279v45,-53,124,-80,235,-80v72,0,152,14,240,41"},"g":{"d":"504,-393v-97,47,-146,89,-146,125v0,19,12,36,34,49v22,13,52,20,91,20r351,-10v83,0,148,20,194,61v46,41,70,98,70,173v0,118,-53,212,-158,282v-105,70,-228,105,-369,105v-115,0,-210,-24,-283,-72v-73,-48,-110,-111,-110,-188v0,-83,57,-154,170,-211v-94,-44,-141,-98,-141,-162v0,-73,61,-142,182,-205v-56,-34,-99,-78,-129,-132v-30,-54,-45,-111,-45,-171v0,-98,33,-178,100,-241v67,-63,150,-95,250,-95v72,0,137,15,195,45r309,-47r0,152r-199,0v30,53,45,115,45,186v0,95,-33,175,-99,240v-66,65,-150,98,-251,98v-21,0,-42,-1,-61,-2xm565,-512v57,0,105,-20,141,-60v36,-40,54,-91,54,-155v0,-67,-18,-120,-53,-158v-35,-38,-83,-57,-142,-57v-55,0,-101,20,-139,60v-38,40,-57,91,-57,155v0,63,19,115,57,155v38,40,84,60,139,60xm571,291v103,0,191,-23,263,-69v72,-46,108,-102,108,-169v0,-69,-51,-104,-154,-104v-34,0,-93,2,-176,6v-53,3,-94,4,-124,4v-15,0,-37,12,-68,36v-31,24,-56,49,-72,73v-16,24,-24,49,-24,75v0,41,23,76,68,105v45,29,105,43,179,43"},"h":{"d":"1018,0r-156,0r0,-668v0,-93,-14,-160,-44,-202v-30,-42,-77,-62,-140,-62v-95,0,-198,59,-307,178r0,754r-156,0r0,-1411r156,0r0,522v112,-119,230,-178,354,-178v195,0,293,118,293,354r0,713"},"i":{"d":"682,-1436v29,0,54,11,75,32v21,21,31,46,31,75v0,31,-10,56,-30,77v-20,21,-46,31,-76,31v-27,0,-51,-11,-72,-33v-21,-22,-32,-46,-32,-75v0,-29,11,-54,32,-75v21,-21,45,-32,72,-32xm758,0r-156,0r0,-907r-307,0r0,-135r463,0r0,1042"},"j":{"d":"682,-1436v29,0,54,11,75,32v21,21,31,46,31,75v0,31,-10,56,-30,77v-20,21,-46,31,-76,31v-27,0,-51,-11,-72,-33v-21,-22,-32,-46,-32,-75v0,-29,11,-54,32,-75v21,-21,45,-32,72,-32xm758,53v0,131,-23,223,-68,277v-45,54,-123,82,-235,82v-72,0,-152,-14,-240,-41r41,-127v74,21,140,32,199,32v56,0,94,-16,115,-48v21,-32,32,-95,32,-191r0,-944r-307,0r0,-135r463,0r0,1095"},"k":{"d":"1120,0r-205,0r-442,-518r-102,88r0,430r-156,0r0,-1411r156,0r0,809r489,-440r199,0r-475,426"},"l":{"d":"942,0r-426,0r0,-1276r-272,0r0,-135r428,0r0,1276r270,0r0,135"},"m":{"d":"1100,0r-156,0r0,-684v0,-165,-31,-248,-92,-248v-31,0,-66,29,-104,86v-38,57,-56,88,-56,94r0,752r-155,0r0,-684v0,-165,-31,-248,-93,-248v-31,0,-64,29,-102,86v-38,57,-57,88,-57,94r0,752r-156,0r0,-1042r150,0r0,157v29,-55,65,-100,105,-133v40,-33,80,-49,120,-49v42,0,80,16,113,49v33,33,56,78,69,133v29,-55,64,-100,105,-133v41,-33,81,-49,120,-49v126,0,189,113,189,338r0,729"},"n":{"d":"1018,0r-156,0r0,-668v0,-93,-14,-160,-44,-202v-30,-42,-77,-62,-140,-62v-95,0,-198,59,-307,178r0,754r-156,0r0,-1042r156,0r0,153v112,-119,230,-178,354,-178v195,0,293,118,293,354r0,713"},"o":{"d":"614,-1067v143,0,257,50,342,150v85,100,127,232,127,395v0,165,-42,297,-127,398v-85,101,-199,151,-342,151v-144,0,-258,-51,-342,-151v-84,-100,-127,-233,-127,-398v0,-164,42,-296,127,-396v85,-100,199,-149,342,-149xm614,-109v95,0,169,-40,224,-120v55,-80,82,-177,82,-291v0,-120,-27,-219,-81,-296v-54,-77,-129,-116,-225,-116v-97,0,-172,38,-225,114v-53,76,-80,176,-80,298v0,116,27,213,81,292v54,79,129,119,224,119"},"p":{"d":"371,-907v35,-48,82,-87,141,-116v59,-29,121,-44,186,-44v120,0,214,50,282,149v68,99,103,227,103,386v0,160,-35,294,-107,400v-72,106,-169,159,-290,159v-65,0,-126,-17,-182,-49v-56,-32,-100,-75,-133,-128r0,562r-156,0r0,-1454r156,0r0,135xm371,-752r0,433v29,59,69,108,119,147v50,39,102,59,155,59v84,0,151,-39,201,-118v50,-79,74,-176,74,-293v0,-120,-24,-218,-71,-294v-47,-76,-113,-114,-198,-114v-110,0,-203,60,-280,180"},"q":{"d":"1014,412r-156,0r0,-562v-32,51,-78,94,-138,127v-60,33,-122,50,-188,50v-119,0,-214,-52,-283,-157v-69,-105,-104,-238,-104,-400v0,-155,36,-284,108,-385v72,-101,168,-152,288,-152v131,0,237,53,317,160r0,-135r156,0r0,1454xm858,-319r0,-433v-75,-120,-165,-180,-270,-180v-86,0,-154,39,-204,117v-50,78,-75,176,-75,293v0,119,24,217,71,294v47,77,111,115,193,115v39,0,79,-11,119,-32v40,-21,78,-53,113,-96v35,-43,53,-69,53,-78"},"r":{"d":"1034,-1014r-63,150v-69,-30,-128,-45,-178,-45v-46,0,-91,13,-135,39v-44,26,-85,65,-122,114v-37,49,-55,76,-55,82r0,674r-155,0r0,-1042r155,0r0,211v83,-157,191,-236,324,-236v79,0,155,18,229,53"},"s":{"d":"909,-893v-87,-29,-170,-43,-247,-43v-85,0,-152,14,-201,42v-49,28,-74,67,-74,114v0,30,11,56,34,78v23,22,68,44,136,63r149,43v69,19,125,43,168,70v43,27,76,60,98,98v22,38,32,82,32,133v0,99,-42,177,-125,235v-83,58,-189,87,-318,87v-128,0,-234,-19,-317,-58r30,-135v87,41,181,62,281,62v87,0,157,-16,211,-48v54,-32,82,-76,82,-129v0,-36,-13,-69,-40,-97v-27,-28,-91,-57,-191,-88r-178,-56v-38,-12,-73,-30,-106,-54v-33,-24,-58,-53,-75,-86v-17,-33,-25,-71,-25,-112v0,-90,39,-161,118,-214v79,-53,183,-79,313,-79v84,0,177,14,280,43"},"t":{"d":"1028,-47v-105,48,-208,72,-309,72v-186,0,-279,-98,-279,-295r0,-637r-200,0r0,-135r200,0r0,-285r152,0r0,285r354,0r0,135r-354,0r0,596v0,63,14,112,42,147v28,35,66,53,114,53v85,0,170,-19,253,-57"},"u":{"d":"1016,0r-156,0r0,-154v-112,119,-230,179,-354,179v-195,0,-293,-118,-293,-355r0,-712r156,0r0,667v0,89,14,155,42,199v28,44,75,65,142,65v95,0,198,-59,307,-178r0,-753r156,0r0,1042"},"v":{"d":"1065,-1042r-395,1042r-142,0r-393,-1042r170,0r295,829r295,-829r170,0"},"w":{"d":"1141,-1042r-150,1042r-119,0r-245,-590r-246,590r-119,0r-147,-1042r155,0v55,487,84,742,86,766r191,-453r160,0r190,450r84,-763r160,0"},"x":{"d":"1055,0r-176,0r-279,-408r-289,408r-166,0r371,-522r-371,-520r179,0r280,405r285,-405r166,0r-369,514"},"y":{"d":"1065,-1042r-395,1042v-57,153,-114,260,-170,321v-56,61,-121,91,-193,91v-64,0,-127,-12,-190,-35r26,-125v51,16,96,24,136,24v56,0,102,-22,138,-65v36,-43,72,-114,109,-213r-391,-1040r170,0r295,831r295,-831r170,0"},"z":{"d":"1004,0r-801,0r0,-84r594,-821r-580,0r0,-137r787,0r0,77r-594,828r594,0r0,137"},"{":{"d":"915,342r-79,0v-96,0,-166,-26,-208,-78v-42,-52,-63,-147,-63,-287r0,-96v0,-125,-16,-212,-49,-261v-33,-49,-85,-73,-158,-73r0,-163v73,0,125,-25,158,-74v33,-49,49,-135,49,-260r0,-97v0,-139,21,-235,63,-287v42,-52,112,-77,208,-77r79,0r0,131r-30,0v-62,0,-105,13,-129,40v-24,27,-37,90,-37,191r0,64v0,138,-16,240,-48,305v-32,65,-86,114,-163,145v77,32,131,81,163,146v32,65,48,167,48,305r0,64v0,101,13,164,37,191v24,27,67,40,129,40r30,0r0,131"},"|":{"d":"686,383r-154,0r0,-1794r154,0r0,1794"},"}":{"d":"866,-453v-72,0,-125,24,-158,73v-33,49,-49,136,-49,261r0,96v0,140,-21,235,-63,287v-42,52,-111,78,-207,78r-80,0r0,-131r31,0v62,0,106,-13,130,-40v24,-27,36,-90,36,-191r0,-64v0,-138,16,-240,48,-305v32,-65,86,-114,163,-146v-77,-31,-131,-80,-163,-145v-32,-65,-48,-167,-48,-305r0,-64v0,-101,-12,-164,-36,-191v-24,-27,-68,-40,-130,-40r-31,0r0,-131r80,0v96,0,165,25,207,77v42,52,63,148,63,287r0,97v0,113,15,197,44,252v29,55,84,82,163,82r0,163"},"~":{"d":"1155,-512v-103,87,-203,131,-299,131v-56,0,-141,-26,-256,-78v-117,-52,-201,-78,-250,-78v-78,0,-175,46,-291,138r0,-144v105,-87,207,-131,306,-131v57,0,143,26,258,78v115,52,196,78,245,78v78,0,174,-46,287,-137r0,143"},"\u00a0":{}}});
